<?xml version="1.0"?>
<opencv_storage>
<cascade>
  <stageType>BOOST</stageType>
  <featureType>LBP</featureType>
  <height>35</height>
  <width>35</width>
  <stageParams>
    <boostType>LB</boostType>
    <minHitRate>9.9000000953674316e-001</minHitRate>
    <maxFalseAlarm>5.0000000000000000e-001</maxFalseAlarm>
    <weightTrimRate>9.0000000000000002e-001</weightTrimRate>
    <maxDepth>1</maxDepth>
    <maxWeakCount>100</maxWeakCount></stageParams>
  <featureParams>
    <maxCatCount>256</maxCatCount>
    <featSize>1</featSize></featureParams>
  <stageNum>17</stageNum>
  <stages>
    <!-- stage 0 -->
    <_>
      <maxWeakCount>2</maxWeakCount>
      <stageThreshold>-6.9824105501174927e-001</stageThreshold>
      <weakClassifiers>
        <_>
          <internalNodes>
            0 -1 25 1595400191 1598029567 1599070205 1470101503
            1582301183 517959423 1461706463 56608767</internalNodes>
          <leafValues>
            -1.5162791013717651e+000 1.5989193916320801e+000</leafValues></_>
        <_>
          <internalNodes>
            0 -1 23 -670574120 1573605512 1560498203 1532433108
            -660940582 -548732800 2077442314 1534795778</internalNodes>
          <leafValues>
            -1.4187090396881104e+000 8.1803798675537109e-001</leafValues></_></weakClassifiers></_>
    <!-- stage 1 -->
    <_>
      <maxWeakCount>4</maxWeakCount>
      <stageThreshold>-1.0359069108963013e+000</stageThreshold>
      <weakClassifiers>
        <_>
          <internalNodes>
            0 -1 114 -273748310 2797090 -420551968 1089399458 -4369
            1086054395 -5 -202638341</internalNodes>
          <leafValues>
            -1.3969376087188721e+000 1.4343372583389282e+000</leafValues></_>
        <_>
          <internalNodes>
            0 -1 54 -4194305 -40115753 -1795293217 -1107429669
            -1142170885 -1114904083 265148399 16770007</internalNodes>
          <leafValues>
            -1.6271467208862305e+000 8.6444240808486938e-001</leafValues></_>
        <_>
          <internalNodes>
            0 -1 30 -1073250176 1086324872 32896 1073889370 -1845493760
            16842752 33685510 -2146820094</internalNodes>
          <leafValues>
            -1.4012436866760254e+000 9.3739187717437744e-001</leafValues></_>
        <_>
          <internalNodes>
            0 -1 150 -119348990 -1606294528 -534233088 -2146787158
            1627402272 271581188 -784280128 -223379293</internalNodes>
          <leafValues>
            -1.0600823163986206e+000 8.9783197641372681e-001</leafValues></_></weakClassifiers></_>
    <!-- stage 2 -->
    <_>
      <maxWeakCount>4</maxWeakCount>
      <stageThreshold>-1.3018199205398560e+000</stageThreshold>
      <weakClassifiers>
        <_>
          <internalNodes>
            0 -1 76 -1148193569 -1077936371 -1475412001 -1345326113
            -1153435173 -1614823729 1780481999 46070495</internalNodes>
          <leafValues>
            -1.3410097360610962e+000 1.2960468530654907e+000</leafValues></_>
        <_>
          <internalNodes>
            0 -1 11 -69548806 -606615814 -736081696 -218533121 -15007720
            1999333474 2056416010 1936946011</internalNodes>
          <leafValues>
            -1.4888831377029419e+000 7.2984576225280762e-001</leafValues></_>
        <_>
          <internalNodes>
            0 -1 68 356536540 420225480 164217307 1072440532 956571288
            1002963384 545820298 -1361171956</internalNodes>
          <leafValues>
            -1.5220586061477661e+000 7.1407645940780640e-001</leafValues></_>
        <_>
          <internalNodes>
            0 -1 125 -144215040 -536883044 -2143171301 -1286778797
            2131982478 -1446315900 -821409422 -1968257970</internalNodes>
          <leafValues>
            -1.2189635038375854e+000 8.1399649381637573e-001</leafValues></_></weakClassifiers></_>
    <!-- stage 3 -->
    <_>
      <maxWeakCount>6</maxWeakCount>
      <stageThreshold>-2.3520374298095703e+000</stageThreshold>
      <weakClassifiers>
        <_>
          <internalNodes>
            0 -1 20 -257 -4401 -807415937 -538975513 -18879009 532565711
            -536870929 1409271631</internalNodes>
          <leafValues>
            -1.0382165908813477e+000 1.2822384834289551e+000</leafValues></_>
        <_>
          <internalNodes>
            0 -1 3 -4269862 -12926119 -585971266 -610351957 -74754118
            2075806159 -239118150 2138791775</internalNodes>
          <leafValues>
            -1.1748620271682739e+000 8.0800247192382813e-001</leafValues></_>
        <_>
          <internalNodes>
            0 -1 112 -201328644 970168351 33689780 689644572 -582281275
            -1110261737 215732690 -1142163713</internalNodes>
          <leafValues>
            -1.1142972707748413e+000 8.3669018745422363e-001</leafValues></_>
        <_>
          <internalNodes>
            0 -1 142 -68425310 -1425822045 1623503008 550408100
            -11732160 -1446008214 -253500736 -957901329</internalNodes>
          <leafValues>
            -1.1250213384628296e+000 6.6617697477340698e-001</leafValues></_>
        <_>
          <internalNodes>
            0 -1 24 -166397219 1603097268 -329154731 1508188247
            -20243815 -107263046 -17032485 2080180232</internalNodes>
          <leafValues>
            -1.3106784820556641e+000 4.6601819992065430e-001</leafValues></_>
        <_>
          <internalNodes>
            0 -1 80 1872183167 751899089 -736372985 -258214433
            -724877035 -329520630 -213663371 -21108521</internalNodes>
          <leafValues>
            -8.6040419340133667e-001 7.9255217313766479e-001</leafValues></_></weakClassifiers></_>
    <!-- stage 4 -->
    <_>
      <maxWeakCount>6</maxWeakCount>
      <stageThreshold>-1.2158731222152710e+000</stageThreshold>
      <weakClassifiers>
        <_>
          <internalNodes>
            0 -1 18 1064293119 -6209 1858346959 1136495527 -660680753
            -543185233 1601014751 1078314727</internalNodes>
          <leafValues>
            -1.2796757221221924e+000 1.0914278030395508e+000</leafValues></_>
        <_>
          <internalNodes>
            0 -1 71 353130837 494204925 -139482515 488190589 1355816168
            -1146430989 299829438 1072640943</internalNodes>
          <leafValues>
            -1.8305654525756836e+000 4.9223315715789795e-001</leafValues></_>
        <_>
          <internalNodes>
            0 -1 26 -18 -744903753 -1378624960 -544695858 1605453126
            1400847999 -11965088 1935402992</internalNodes>
          <leafValues>
            -2.0405592918395996e+000 3.9585453271865845e-001</leafValues></_>
        <_>
          <internalNodes>
            0 -1 0 1284427006 328465270 -140652065 -611757909 1393017018
            -90527582 -205302278 1885557618</internalNodes>
          <leafValues>
            -1.4374949932098389e+000 5.6732535362243652e-001</leafValues></_>
        <_>
          <internalNodes>
            0 -1 124 2101407484 -113864465 -582897068 -1144453387
            -942615586 -672180199 -510599745 707439870</internalNodes>
          <leafValues>
            -1.4191799163818359e+000 5.4652625322341919e-001</leafValues></_>
        <_>
          <internalNodes>
            0 -1 121 922937520 8947952 730251484 732430584 -1228694838
            -1412595572 75710825 1073683549</internalNodes>
          <leafValues>
            -1.6650850772857666e+000 3.8466203212738037e-001</leafValues></_></weakClassifiers></_>
    <!-- stage 5 -->
    <_>
      <maxWeakCount>8</maxWeakCount>
      <stageThreshold>-1.8803088665008545e+000</stageThreshold>
      <weakClassifiers>
        <_>
          <internalNodes>
            0 -1 12 -14134 -361828618 -1166487446 -227345665 2134065234
            -495223957 2136038002 1934849911</internalNodes>
          <leafValues>
            -9.1334396600723267e-001 1.0464825630187988e+000</leafValues></_>
        <_>
          <internalNodes>
            0 -1 87 -1109936321 -1902143073 -988423905 -1925212371
            978992699 -1353760961 775854173 204486001</internalNodes>
          <leafValues>
            -1.8270388841629028e+000 4.5235469937324524e-001</leafValues></_>
        <_>
          <internalNodes>
            0 -1 96 539895005 -12005 -1521794795 -1346013353 -434450222
            -35923132 585538511 82760957</internalNodes>
          <leafValues>
            -1.8157979249954224e+000 4.0582713484764099e-001</leafValues></_>
        <_>
          <internalNodes>
            0 -1 28 534213370 1007427668 33554454 1003366930 448805096
            1002375880 -1372987332 717187096</internalNodes>
          <leafValues>
            -1.5508823394775391e+000 4.7689917683601379e-001</leafValues></_>
        <_>
          <internalNodes>
            0 -1 64 2119269596 529359214 1964138750 4999686 1069370460
            -1075193053 1052452191 332091670</internalNodes>
          <leafValues>
            -1.6413360834121704e+000 4.3808886408805847e-001</leafValues></_>
        <_>
          <internalNodes>
            0 -1 27 -185728434 -325872790 -1039121682 -234564197
            1524386880 1662745118 -167614893 1882324607</internalNodes>
          <leafValues>
            -1.5053484439849854e+000 3.9338675141334534e-001</leafValues></_>
        <_>
          <internalNodes>
            0 -1 132 -552646656 -1582080638 -830159680 -1498684981
            -19729504 -1313746730 -859185024 -1529363769</internalNodes>
          <leafValues>
            -1.1335573196411133e+000 4.4785165786743164e-001</leafValues></_>
        <_>
          <internalNodes>
            0 -1 97 -1320091504 -753696234 1433039322 1329822106
            869540480 1241589888 261371538 1075189658</internalNodes>
          <leafValues>
            -1.3081253767013550e+000 3.9902785420417786e-001</leafValues></_></weakClassifiers></_>
    <!-- stage 6 -->
    <_>
      <maxWeakCount>8</maxWeakCount>
      <stageThreshold>-1.1281058788299561e+000</stageThreshold>
      <weakClassifiers>
        <_>
          <internalNodes>
            0 -1 133 -72353630 -1381307478 -168963968 -574751312 -4101
            265809908 1426047200 -708323853</internalNodes>
          <leafValues>
            -3.5307782888412476e-001 1.2473423480987549e+000</leafValues></_>
        <_>
          <internalNodes>
            0 -1 100 -579610116 320110709 586607832 732604440 -305006641
            -1621375915 868074397 1069538491</internalNodes>
          <leafValues>
            -1.2918548583984375e+000 5.8110421895980835e-001</leafValues></_>
        <_>
          <internalNodes>
            0 -1 40 -16790817 -231001989 1786411239 1917870202
            -1125380608 1316563813 -370104069 -98919845</internalNodes>
          <leafValues>
            -7.3501551151275635e-001 9.1806334257125854e-001</leafValues></_>
        <_>
          <internalNodes>
            0 -1 7 -488183102 -231291354 -1750938043 -9843512 1845576930
            -799878848 -286064078 -143426269</internalNodes>
          <leafValues>
            -9.2248028516769409e-001 6.7778491973876953e-001</leafValues></_>
        <_>
          <internalNodes>
            0 -1 9 -704654088 1527300096 -1048440430 2140863258
            972507280 780685721 1411807743 2069462975</internalNodes>
          <leafValues>
            -1.1292318105697632e+000 4.8379886150360107e-001</leafValues></_>
        <_>
          <internalNodes>
            0 -1 111 1528394326 1398248500 1427493981 -782790571
            -1982016494 -590790528 1444331538 711972603</internalNodes>
          <leafValues>
            -1.0467344522476196e+000 5.5461978912353516e-001</leafValues></_>
        <_>
          <internalNodes>
            0 -1 51 -98631622 -274787244 1745246563 537022666 -315621306
            -1410377718 -895430534 -483198114</internalNodes>
          <leafValues>
            -8.9270865917205811e-001 6.2330818176269531e-001</leafValues></_>
        <_>
          <internalNodes>
            0 -1 50 -77606828 178299642 1342195969 865572061 -87381096
            737080308 -788279142 -277782</internalNodes>
          <leafValues>
            -1.0034108161926270e+000 5.2536112070083618e-001</leafValues></_></weakClassifiers></_>
    <!-- stage 7 -->
    <_>
      <maxWeakCount>10</maxWeakCount>
      <stageThreshold>-2.1787176132202148e+000</stageThreshold>
      <weakClassifiers>
        <_>
          <internalNodes>
            0 -1 63 -495256833 -536971265 -704858115 1853734725
            -1642094641 -1367384761 -18956301 141571335</internalNodes>
          <leafValues>
            -6.7254036664962769e-001 1.0217175483703613e+000</leafValues></_>
        <_>
          <internalNodes>
            0 -1 143 -221453598 -1947524871 1348333584 1364919999
            -2088531009 -1934751443 1140953264 1356830719</internalNodes>
          <leafValues>
            -9.9764937162399292e-001 5.7772213220596313e-001</leafValues></_>
        <_>
          <internalNodes>
            0 -1 13 -931142962 -2147295554 -1807695868 1646445268
            1097293826 1343361026 1634034178 -713825437</internalNodes>
          <leafValues>
            -1.0855334997177124e+000 5.3964954614639282e-001</leafValues></_>
        <_>
          <internalNodes>
            0 -1 45 524301050 1566325340 423766042 59777155 773458682
            -18982784 1066724318 787399808</internalNodes>
          <leafValues>
            -1.2399436235427856e+000 4.5336505770683289e-001</leafValues></_>
        <_>
          <internalNodes>
            0 -1 98 -1786096408 -740418822 -1311244194 293016670
            -1836410646 -1589508952 54657178 471065</internalNodes>
          <leafValues>
            -1.0381181240081787e+000 5.1663303375244141e-001</leafValues></_>
        <_>
          <internalNodes>
            0 -1 126 1934448130 -215809014 838877407 604224227
            -588017592 -763305152 -327517974 -364118305</internalNodes>
          <leafValues>
            -8.8077396154403687e-001 5.6616127490997314e-001</leafValues></_>
        <_>
          <internalNodes>
            0 -1 91 899653503 266280859 -250259431 533665265 -1996678109
            -116698391 1212415534 34816026</internalNodes>
          <leafValues>
            -1.4821624755859375e+000 3.5510697960853577e-001</leafValues></_>
        <_>
          <internalNodes>
            0 -1 108 1410484288 -79854048 856363923 -5296083 1258934308
            -653876672 439490843 -327151597</internalNodes>
          <leafValues>
            -9.0061038732528687e-001 5.5768090486526489e-001</leafValues></_>
        <_>
          <internalNodes>
            0 -1 38 -939041025 1225769610 -788113150 37876214
            -1073000193 -1743648692 -280341673 -134010923</internalNodes>
          <leafValues>
            -8.2555872201919556e-001 6.0629731416702271e-001</leafValues></_>
        <_>
          <internalNodes>
            0 -1 90 436746013 1050284112 -1630055123 1472090620
            279328088 -689012344 386269264 1201275152</internalNodes>
          <leafValues>
            -1.2248723506927490e+000 3.9960315823554993e-001</leafValues></_></weakClassifiers></_>
    <!-- stage 8 -->
    <_>
      <maxWeakCount>11</maxWeakCount>
      <stageThreshold>-2.1885139942169189e+000</stageThreshold>
      <weakClassifiers>
        <_>
          <internalNodes>
            0 -1 77 252779893 -1157627946 -1077985481 721305406
            -143166368 -1495293194 1031779617 805997063</internalNodes>
          <leafValues>
            -8.9917564392089844e-001 9.6418583393096924e-001</leafValues></_>
        <_>
          <internalNodes>
            0 -1 140 -180633600 -645013504 689404075 -2134836576
            1860824708 -997924736 -290790686 -1604074269</internalNodes>
          <leafValues>
            -1.1923972368240356e+000 5.0906825065612793e-001</leafValues></_>
        <_>
          <internalNodes>
            0 -1 106 -1396715812 1034685504 524374291 956766293
            1879217154 268435586 22665678 2066682319</internalNodes>
          <leafValues>
            -1.1167992353439331e+000 5.2442723512649536e-001</leafValues></_>
        <_>
          <internalNodes>
            0 -1 39 -633733054 -208970489 1519451656 270145774
            1529757768 -30732194 -902758629 1898589086</internalNodes>
          <leafValues>
            -1.2967145442962646e+000 4.2655244469642639e-001</leafValues></_>
        <_>
          <internalNodes>
            0 -1 1 17227262 286491272 68278617 -716703761 -2113757717
            -2130519648 -1467556424 862089826</internalNodes>
          <leafValues>
            -1.1616603136062622e+000 4.5902001857757568e-001</leafValues></_>
        <_>
          <internalNodes>
            0 -1 159 -1704032 -204477760 -513117728 -249321479
            -699992845 2553336 1152508129 -206601769</internalNodes>
          <leafValues>
            -5.6467896699905396e-001 8.0119198560714722e-001</leafValues></_>
        <_>
          <internalNodes>
            0 -1 70 -640628482 -140283945 -1049592329 302007323
            -1642163574 -10528999 1858138778 -1625290324</internalNodes>
          <leafValues>
            -6.1527967453002930e-001 7.7537691593170166e-001</leafValues></_>
        <_>
          <internalNodes>
            0 -1 128 -1423183175 -2088584276 -779757071 -1349002348
            -1363959345 -1088191915 1938368577 -4206387</internalNodes>
          <leafValues>
            -6.5711981058120728e-001 6.9756752252578735e-001</leafValues></_>
        <_>
          <internalNodes>
            0 -1 141 -136583496 -1992711442 -783062480 232475339
            -2004835920 -1675288497 191191180 216001279</internalNodes>
          <leafValues>
            -9.3714195489883423e-001 5.2701628208160400e-001</leafValues></_>
        <_>
          <internalNodes>
            0 -1 74 -78744705 -258813552 -799442676 -258877220
            1058542940 -1374101399 -2147233520 -3147574</internalNodes>
          <leafValues>
            -6.7760211229324341e-001 6.7572152614593506e-001</leafValues></_>
        <_>
          <internalNodes>
            0 -1 55 858448570 1026748464 -1065299360 -542972180
            -385713413 1066101952 -692000278 1003423182</internalNodes>
          <leafValues>
            -1.3828076124191284e+000 3.3632963895797729e-001</leafValues></_></weakClassifiers></_>
    <!-- stage 9 -->
    <_>
      <maxWeakCount>12</maxWeakCount>
      <stageThreshold>-1.5411016941070557e+000</stageThreshold>
      <weakClassifiers>
        <_>
          <internalNodes>
            0 -1 31 -93337014 -360710285 -892147978 1342373118 -62386
            1867468101 -1529247746 -1066737958</internalNodes>
          <leafValues>
            -1.8142895400524139e-001 1.2150999307632446e+000</leafValues></_>
        <_>
          <internalNodes>
            0 -1 86 899674621 998244480 431379917 771557516 732899580
            234129601 321733005 656285696</internalNodes>
          <leafValues>
            -1.1035208702087402e+000 4.9032866954803467e-001</leafValues></_>
        <_>
          <internalNodes>
            0 -1 89 1251541779 682618967 -587115179 -1432528825
            -785661952 69222408 -103834761 -930489447</internalNodes>
          <leafValues>
            -1.1398278474807739e+000 4.4713860750198364e-001</leafValues></_>
        <_>
          <internalNodes>
            0 -1 8 -1685809966 -223525681 -1070773104 1078301443
            -374502720 -1479376860 1252625079 -263736765</internalNodes>
          <leafValues>
            -1.1670542955398560e+000 4.1777601838111877e-001</leafValues></_>
        <_>
          <internalNodes>
            0 -1 41 -165963014 -622126257 2017125111 1879063167 -2226166
            -78025888 2126150299 -653593974</internalNodes>
          <leafValues>
            -5.9007138013839722e-001 7.2719585895538330e-001</leafValues></_>
        <_>
          <internalNodes>
            0 -1 105 -1631648776 1347586120 832569843 472154161
            -1990190776 -13110600 809617626 1342951947</internalNodes>
          <leafValues>
            -1.1574658155441284e+000 4.0943950414657593e-001</leafValues></_>
        <_>
          <internalNodes>
            0 -1 58 -21358565 -355935350 -493296141 571003950 -391247780
            -1740998009 -559885218 -482697132</internalNodes>
          <leafValues>
            -7.9731619358062744e-001 6.0070925951004028e-001</leafValues></_>
        <_>
          <internalNodes>
            0 -1 5 -439958802 -1303345486 -2095933285 1997433882
            1124271074 -1041072127 1095188573 1662019122</internalNodes>
          <leafValues>
            -1.1071645021438599e+000 4.3139111995697021e-001</leafValues></_>
        <_>
          <internalNodes>
            0 -1 123 -266606064 -803319204 1912951047 -6826989
            -783204262 -52682638 -578147750 -1397822262</internalNodes>
          <leafValues>
            -1.1776483058929443e+000 3.4261634945869446e-001</leafValues></_>
        <_>
          <internalNodes>
            0 -1 47 1897150817 503218030 1072640941 368822235 -403177571
            -1950990345 -93471335 187445516</internalNodes>
          <leafValues>
            -5.4664480686187744e-001 7.8125470876693726e-001</leafValues></_>
        <_>
          <internalNodes>
            0 -1 82 -544376865 -2374179 -1794559727 1427492961 -87467448
            -1949750774 1082913413 319012880</internalNodes>
          <leafValues>
            -8.1357592344284058e-001 5.2662694454193115e-001</leafValues></_>
        <_>
          <internalNodes>
            0 -1 129 -6292805 -2087996022 -1146695087 -581339781
            -73403161 -589709376 -1787120272 -2100016</internalNodes>
          <leafValues>
            -4.9158155918121338e-001 8.7953770160675049e-001</leafValues></_></weakClassifiers></_>
    <!-- stage 10 -->
    <_>
      <maxWeakCount>11</maxWeakCount>
      <stageThreshold>-1.8740593194961548e+000</stageThreshold>
      <weakClassifiers>
        <_>
          <internalNodes>
            0 -1 154 -75238669 -886394974 1923609936 -746753439
            -757074253 -1987641351 1441845745 -1055298</internalNodes>
          <leafValues>
            9.3388117849826813e-002 1.4258167743682861e+000</leafValues></_>
        <_>
          <internalNodes>
            0 -1 15 -203431218 -927403522 -802629048 -799500065
            591610442 -2106562189 -144476909 1934884659</internalNodes>
          <leafValues>
            -1.0687284469604492e+000 4.8255077004432678e-001</leafValues></_>
        <_>
          <internalNodes>
            0 -1 36 1887787514 -805242424 1409375042 -1605307696
            1284005002 1645374024 1485340482 1131639125</internalNodes>
          <leafValues>
            -1.6750431060791016e+000 2.9325190186500549e-001</leafValues></_>
        <_>
          <internalNodes>
            0 -1 60 -730333032 2111772535 626161947 842147169 -74937192
            -650876861 671799772 135952722</internalNodes>
          <leafValues>
            -1.0842870473861694e+000 4.2426860332489014e-001</leafValues></_>
        <_>
          <internalNodes>
            0 -1 46 1363452576 -583425882 967935438 -159273 -1493147142
            -1730627382 -1227142705 -1073640917</internalNodes>
          <leafValues>
            -7.0321518182754517e-001 6.2613070011138916e-001</leafValues></_>
        <_>
          <internalNodes>
            0 -1 34 1569232058 1895322048 -2095626113 502505947
            584642780 -785377065 -780101313 492388092</internalNodes>
          <leafValues>
            -7.6416200399398804e-001 5.5843716859817505e-001</leafValues></_>
        <_>
          <internalNodes>
            0 -1 67 2107184296 73677455 1267194447 839913612 -1098230692
            -1204909869 -1348850079 -1204669930</internalNodes>
          <leafValues>
            -1.1153957843780518e+000 4.0238744020462036e-001</leafValues></_>
        <_>
          <internalNodes>
            0 -1 117 -12585560 797897997 -2147199808 -1930497587
            -1827509844 -2020354781 -132690937 349698015</internalNodes>
          <leafValues>
            -1.2404357194900513e+000 3.5983771085739136e-001</leafValues></_>
        <_>
          <internalNodes>
            0 -1 152 -607810046 -619331518 2573448 1919584777 -133644288
            -1068586752 1661723306 -209987349</internalNodes>
          <leafValues>
            -6.5118592977523804e-001 6.8786305189132690e-001</leafValues></_>
        <_>
          <internalNodes>
            0 -1 138 1443214782 2007973550 -571082853 1337935144
            -1955801366 -1742213282 -1333806886 457970473</internalNodes>
          <leafValues>
            -5.8493769168853760e-001 7.1049314737319946e-001</leafValues></_>
        <_>
          <internalNodes>
            0 -1 118 973929597 939268144 -2017201313 -1081274336
            506452876 198132013 214241466 380568628</internalNodes>
          <leafValues>
            -1.0402866601943970e+000 4.1158777475357056e-001</leafValues></_></weakClassifiers></_>
    <!-- stage 11 -->
    <_>
      <maxWeakCount>13</maxWeakCount>
      <stageThreshold>-1.7674630880355835e+000</stageThreshold>
      <weakClassifiers>
        <_>
          <internalNodes>
            0 -1 135 -774901582 -1582784478 -1058213648 -538718092
            -1915880261 -1952458817 1096138961 1442826215</internalNodes>
          <leafValues>
            -2.3285084962844849e-001 1.1106599569320679e+000</leafValues></_>
        <_>
          <internalNodes>
            0 -1 2 -288716038 -204235798 -1324940935 -3155538 -892940310
            -1683304064 -1006383414 -251439262</internalNodes>
          <leafValues>
            -8.9479291439056396e-001 5.3787446022033691e-001</leafValues></_>
        <_>
          <internalNodes>
            0 -1 130 2051004940 1603752458 303419477 101932693 -86517624
            -1229794816 1951455448 -334760325</internalNodes>
          <leafValues>
            -8.6762601137161255e-001 5.4259359836578369e-001</leafValues></_>
        <_>
          <internalNodes>
            0 -1 49 206582456 1572894401 865110568 797245569 799680696
            -73761660 720020106 502956074</internalNodes>
          <leafValues>
            -1.3161355257034302e+000 3.4868508577346802e-001</leafValues></_>
        <_>
          <internalNodes>
            0 -1 158 -177740510 -609761302 179219616 -1016082332
            -134940687 15029312 -192547552 -740830262</internalNodes>
          <leafValues>
            -5.7218122482299805e-001 6.8072497844696045e-001</leafValues></_>
        <_>
          <internalNodes>
            0 -1 145 1882569436 1901594386 64030093 2077604733
            -1487888450 -199180114 1468060223 133772942</internalNodes>
          <leafValues>
            -7.6455855369567871e-001 5.7281231880187988e-001</leafValues></_>
        <_>
          <internalNodes>
            0 -1 79 2145332593 -1493337089 -65 -1837105345 -1484789807
            -16884274 -1216375721 -615647926</internalNodes>
          <leafValues>
            -5.1150268316268921e-001 7.3323559761047363e-001</leafValues></_>
        <_>
          <internalNodes>
            0 -1 21 -1901074774 -961630676 91533143 1337429914
            -473325174 70019756 1100731538 -947136110</internalNodes>
          <leafValues>
            -5.9599488973617554e-001 6.8176525831222534e-001</leafValues></_>
        <_>
          <internalNodes>
            0 -1 83 -766049356 -742026756 135532828 -551747556
            -854970320 1067637184 1090580481 320151633</internalNodes>
          <leafValues>
            -1.1045017242431641e+000 3.7986063957214355e-001</leafValues></_>
        <_>
          <internalNodes>
            0 -1 115 -1903731469 -1216957635 -1874767503 -890121251
            -633415821 -116137443 176616307 -1034257474</internalNodes>
          <leafValues>
            -7.0712608098983765e-001 5.5412191152572632e-001</leafValues></_>
        <_>
          <internalNodes>
            0 -1 65 -292569229 -1945499120 109300662 1916721264
            -1798600331 -1434238296 -1636489099 -549851648</internalNodes>
          <leafValues>
            -7.0276850461959839e-001 5.5721461772918701e-001</leafValues></_>
        <_>
          <internalNodes>
            0 -1 29 -148221936 -11521389 504534362 993534610 -1306518312
            709585944 537950458 1846039999</internalNodes>
          <leafValues>
            -1.0480238199234009e+000 3.9373707771301270e-001</leafValues></_>
        <_>
          <internalNodes>
            0 -1 17 459320994 -2084134780 294999864 2136316305
            -419401743 -144678399 430649865 464626346</internalNodes>
          <leafValues>
            -9.0796089172363281e-001 4.3842464685440063e-001</leafValues></_></weakClassifiers></_>
    <!-- stage 12 -->
    <_>
      <maxWeakCount>12</maxWeakCount>
      <stageThreshold>-1.3449261188507080e+000</stageThreshold>
      <weakClassifiers>
        <_>
          <internalNodes>
            0 -1 53 -87073537 -637594917 -1570844417 1879588863
            -339208102 -80009441 -415585558 -905256993</internalNodes>
          <leafValues>
            3.0172413215041161e-002 1.2778776884078979e+000</leafValues></_>
        <_>
          <internalNodes>
            0 -1 149 -707790160 288597622 1074398233 8847599 1404150484
            8966377 -778515300 1288433919</internalNodes>
          <leafValues>
            -7.6531273126602173e-001 5.7183426618576050e-001</leafValues></_>
        <_>
          <internalNodes>
            0 -1 4 311562898 -604364712 1409343126 -141571373
            -2037864209 -22885754 -1542664454 -262829934</internalNodes>
          <leafValues>
            -1.0041812658309937e+000 4.3607887625694275e-001</leafValues></_>
        <_>
          <internalNodes>
            0 -1 66 386659581 -1187553118 -460274811 39171804 831482892
            -1396550993 -2097044129 -617622709</internalNodes>
          <leafValues>
            -5.9890025854110718e-001 6.6191577911376953e-001</leafValues></_>
        <_>
          <internalNodes>
            0 -1 97 -240123888 1460867602 1409702993 2111042968
            1132463952 1125122112 130888583 100577926</internalNodes>
          <leafValues>
            -1.2341899871826172e+000 3.5752981901168823e-001</leafValues></_>
        <_>
          <internalNodes>
            0 -1 131 -14747488 -1893146432 1573933072 -826474064
            81707705 -1950768977 16994320 -975892023</internalNodes>
          <leafValues>
            -9.8634535074234009e-001 4.2477881908416748e-001</leafValues></_>
        <_>
          <internalNodes>
            0 -1 116 -120368647 -956560736 1895899153 1343529948
            -1015980822 2121732647 1544199099 1107437816</internalNodes>
          <leafValues>
            -9.3671149015426636e-001 4.1573560237884521e-001</leafValues></_>
        <_>
          <internalNodes>
            0 -1 48 591673961 306205784 538053634 1342280145 184294092
            -1446495300 766322091 2061298831</internalNodes>
          <leafValues>
            -1.2386432886123657e+000 3.0421981215476990e-001</leafValues></_>
        <_>
          <internalNodes>
            0 -1 127 -1761650469 -1656524267 -2042464555 -222374837
            2019162673 -78237408 -32221621 -1103750472</internalNodes>
          <leafValues>
            -6.5930521488189697e-001 5.9738934040069580e-001</leafValues></_>
        <_>
          <internalNodes>
            0 -1 139 1232177850 333007173 4220217 699206320 -2007838991
            -1988986704 232831890 422674522</internalNodes>
          <leafValues>
            -8.2723844051361084e-001 4.7244873642921448e-001</leafValues></_>
        <_>
          <internalNodes>
            0 -1 85 -1692372207 -1213590536 -1982805887 401544588
            -874979181 1923744359 -2080201925 -682915731</internalNodes>
          <leafValues>
            -6.5934127569198608e-001 5.7415509223937988e-001</leafValues></_>
        <_>
          <internalNodes>
            0 -1 22 -364917110 -487937374 -276903352 1797945408
            -1030181522 1075482424 1603782236 -713956721</internalNodes>
          <leafValues>
            -5.4844373464584351e-001 6.8546736240386963e-001</leafValues></_></weakClassifiers></_>
    <!-- stage 13 -->
    <_>
      <maxWeakCount>14</maxWeakCount>
      <stageThreshold>-1.6907833814620972e+000</stageThreshold>
      <weakClassifiers>
        <_>
          <internalNodes>
            0 -1 160 -238159197 -1047601877 1578596256 -145358961
            -678504457 1141329865 -705170205 -135283253</internalNodes>
          <leafValues>
            9.9328860640525818e-002 1.3699973821640015e+000</leafValues></_>
        <_>
          <internalNodes>
            0 -1 10 -462430066 -1061496662 -1849078784 -434118742
            -1975760978 1086451916 -1568188141 -789577949</internalNodes>
          <leafValues>
            -8.2943880558013916e-001 5.3435426950454712e-001</leafValues></_>
        <_>
          <internalNodes>
            0 -1 137 1108622040 1899868700 -1211952779 -109369621
            1070318254 -2071887390 -1694442113 520889048</internalNodes>
          <leafValues>
            -6.5780109167098999e-001 5.7926434278488159e-001</leafValues></_>
        <_>
          <internalNodes>
            0 -1 119 -646430473 -216034597 1497682187 528298327
            -316375365 1881608866 1855208395 1376941996</internalNodes>
          <leafValues>
            -8.4534001350402832e-001 4.7503027319908142e-001</leafValues></_>
        <_>
          <internalNodes>
            0 -1 148 -1154416976 -1323144152 52918385 -142483900
            -1479952493 -1363983952 365286645 -607137572</internalNodes>
          <leafValues>
            -5.4339885711669922e-001 6.9987159967422485e-001</leafValues></_>
        <_>
          <internalNodes>
            0 -1 33 -669996910 -208885528 273045824 190317705
            -1569087572 554403842 87593018 461378106</internalNodes>
          <leafValues>
            -8.4868204593658447e-001 4.5031282305717468e-001</leafValues></_>
        <_>
          <internalNodes>
            0 -1 156 -212472318 -774667229 470420795 1361049339
            -726290432 1780850176 -796662021 -721161485</internalNodes>
          <leafValues>
            -4.8136427998542786e-001 7.8588616847991943e-001</leafValues></_>
        <_>
          <internalNodes>
            0 -1 81 825826645 -1375522235 595947892 -737517544
            -1421267467 -1979660352 -1106622119 1061093456</internalNodes>
          <leafValues>
            -1.3889118432998657e+000 3.1670618057250977e-001</leafValues></_>
        <_>
          <internalNodes>
            0 -1 101 -1384646661 -157550629 -793434151 -535570983
            -651448808 1874276673 -1433883751 -1058826278</internalNodes>
          <leafValues>
            -6.2465441226959229e-001 5.7699787616729736e-001</leafValues></_>
        <_>
          <internalNodes>
            0 -1 56 -287342599 -2104483002 369195527 840155140
            -1206969892 -1567964241 -876684480 -150884419</internalNodes>
          <leafValues>
            -5.9427118301391602e-001 6.3449454307556152e-001</leafValues></_>
        <_>
          <internalNodes>
            0 -1 14 -1062368626 286523462 403177475 1157686025
            1097413888 1933840448 269615362 1362962010</internalNodes>
          <leafValues>
            -8.2798230648040771e-001 4.4221514463424683e-001</leafValues></_>
        <_>
          <internalNodes>
            0 -1 61 -690747272 2111635861 1292393657 805843537 268613368
            -815115714 1058180827 -1239807065</internalNodes>
          <leafValues>
            -7.9110312461853027e-001 4.8947596549987793e-001</leafValues></_>
        <_>
          <internalNodes>
            0 -1 134 -1685128533 -852917314 589697185 1473354392
            -1083461803 -966459432 1738463504 -144519740</internalNodes>
          <leafValues>
            -5.1645112037658691e-001 6.8009608983993530e-001</leafValues></_>
        <_>
          <internalNodes>
            0 -1 102 -208473520 -530915120 -771736459 1365070430
            -797465854 878219376 1342341258 17763721</internalNodes>
          <leafValues>
            -8.8499307632446289e-001 4.2030370235443115e-001</leafValues></_></weakClassifiers></_>
    <!-- stage 14 -->
    <_>
      <maxWeakCount>14</maxWeakCount>
      <stageThreshold>-1.4758467674255371e+000</stageThreshold>
      <weakClassifiers>
        <_>
          <internalNodes>
            0 -1 32 -469770030 -151044129 -263524105 1881340923
            -413213170 -1219134163 -1379996737 -204734725</internalNodes>
          <leafValues>
            7.2518326342105865e-002 1.3506557941436768e+000</leafValues></_>
        <_>
          <internalNodes>
            0 -1 92 604183729 687438993 -1069465357 -1007570093
            -450424824 616904601 -632305654 -1744578209</internalNodes>
          <leafValues>
            -8.9959365129470825e-001 5.2493309974670410e-001</leafValues></_>
        <_>
          <internalNodes>
            0 -1 113 -581970188 434591314 -1928720664 802479850
            -1073123001 -1960671487 -195188961 -1088426530</internalNodes>
          <leafValues>
            -9.9989229440689087e-001 4.1700723767280579e-001</leafValues></_>
        <_>
          <internalNodes>
            0 -1 78 1817083647 -219882026 -1170543391 -645388072
            1005485655 -2002715990 555937408 -2009011456</internalNodes>
          <leafValues>
            -7.0827388763427734e-001 5.3214108943939209e-001</leafValues></_>
        <_>
          <internalNodes>
            0 -1 103 -143458374 -983149856 902875350 155271628
            -1000226280 583418050 838897874 398937246</internalNodes>
          <leafValues>
            -9.6033847332000732e-001 4.4846922159194946e-001</leafValues></_>
        <_>
          <internalNodes>
            0 -1 43 1123595044 930158512 51121998 704590770 506606464
            2096115966 574894114 247671330</internalNodes>
          <leafValues>
            -1.0814274549484253e+000 4.0941089391708374e-001</leafValues></_>
        <_>
          <internalNodes>
            0 -1 69 -929411880 -7386465 201354206 808589775 -14134760
            -363648495 531127224 -1155367952</internalNodes>
          <leafValues>
            -8.6837464570999146e-001 4.3764221668243408e-001</leafValues></_>
        <_>
          <internalNodes>
            0 -1 95 -1728956398 1586803344 41992252 447122207 -959464438
            939671808 537137175 838861137</internalNodes>
          <leafValues>
            -1.3456635475158691e+000 2.8714069724082947e-001</leafValues></_>
        <_>
          <internalNodes>
            0 -1 144 -74449925 -543115588 -1208163401 -538127360
            -1292043033 -1645986962 66034109 -544221955</internalNodes>
          <leafValues>
            -3.9599484205245972e-001 9.4022005796432495e-001</leafValues></_>
        <_>
          <internalNodes>
            0 -1 110 1129349336 1456411804 1239156994 1607178191
            1563521521 -2011658075 1264364314 447822344</internalNodes>
          <leafValues>
            -7.2246503829956055e-001 5.3554975986480713e-001</leafValues></_>
        <_>
          <internalNodes>
            0 -1 75 1405146612 1439586478 -1584587633 195720787
            1733342956 -1006877817 59801160 774514712</internalNodes>
          <leafValues>
            -8.3227056264877319e-001 4.2266532778739929e-001</leafValues></_>
        <_>
          <internalNodes>
            0 -1 16 -153754881 1932419818 1619587159 1929381283
            1765867784 118686276 385950699 1463281573</internalNodes>
          <leafValues>
            -7.0076340436935425e-001 5.1062995195388794e-001</leafValues></_>
        <_>
          <internalNodes>
            0 -1 136 -1155450445 -374838288 -946515213 1561146396
            -1073827624 -1504232362 236411257 -211054372</internalNodes>
          <leafValues>
            -5.4098963737487793e-001 6.4879471063613892e-001</leafValues></_>
        <_>
          <internalNodes>
            0 -1 146 -60308480 337633298 277479688 17475980 1384554676
            -1667387264 2015806620 -2076975906</internalNodes>
          <leafValues>
            -8.7926584482192993e-001 4.4155824184417725e-001</leafValues></_></weakClassifiers></_>
    <!-- stage 15 -->
    <_>
      <maxWeakCount>14</maxWeakCount>
      <stageThreshold>-1.3984352350234985e+000</stageThreshold>
      <weakClassifiers>
        <_>
          <internalNodes>
            0 -1 19 -934286464 -498139232 -1580384703 -573702168
            -993738870 1078787716 -976796349 -980420747</internalNodes>
          <leafValues>
            -2.7115043997764587e-001 1.0522114038467407e+000</leafValues></_>
        <_>
          <internalNodes>
            0 -1 153 -609354829 -284361045 -2089242255 -611852630
            -269027329 -1913980946 368367092 -1329793</internalNodes>
          <leafValues>
            -4.5963498950004578e-001 8.5747528076171875e-001</leafValues></_>
        <_>
          <internalNodes>
            0 -1 109 -1715859131 334324047 -648982505 -1781574967
            -1941618605 -62714608 -244059941 -1342236801</internalNodes>
          <leafValues>
            -9.1012680530548096e-001 4.5102345943450928e-001</leafValues></_>
        <_>
          <internalNodes>
            0 -1 72 2147480029 788485470 -1073778947 855605206
            -1207962132 -1544071179 -41957577 -1173760105</internalNodes>
          <leafValues>
            -5.6446486711502075e-001 6.9070255756378174e-001</leafValues></_>
        <_>
          <internalNodes>
            0 -1 104 -1202563843 289407448 356519253 1361744117
            423759952 915490752 281018496 193527953</internalNodes>
          <leafValues>
            -1.2448823451995850e+000 3.4155499935150146e-001</leafValues></_>
        <_>
          <internalNodes>
            0 -1 122 11644656 -239250802 901231619 2074741574 -102058024
            -1282852367 302665049 192529665</internalNodes>
          <leafValues>
            -7.2002524137496948e-001 5.3540945053100586e-001</leafValues></_>
        <_>
          <internalNodes>
            0 -1 151 871079490 -574670908 -363382022 1367077951
            -581573876 -1571328444 1918543082 -77907749</internalNodes>
          <leafValues>
            -4.7365120053291321e-001 7.6963400840759277e-001</leafValues></_>
        <_>
          <internalNodes>
            0 -1 93 1058474249 -1663435447 41964339 1529381585
            -537423340 -669462187 -871777641 -2012096183</internalNodes>
          <leafValues>
            -6.9013762474060059e-001 5.0585287809371948e-001</leafValues></_>
        <_>
          <internalNodes>
            0 -1 62 33595522 -1512701711 1163481225 493705559
            -1063476246 -1379334008 805419483 201955329</internalNodes>
          <leafValues>
            -7.8741121292114258e-001 4.4465997815132141e-001</leafValues></_>
        <_>
          <internalNodes>
            0 -1 57 2116156112 407487580 -218053922 1384137873
            2022199388 -1106706391 1233658954 923275301</internalNodes>
          <leafValues>
            -1.2576122283935547e+000 2.9169955849647522e-001</leafValues></_>
        <_>
          <internalNodes>
            0 -1 59 -541110145 2004704959 -1955659945 2020375146
            -327494799 -278978701 1478687704 -654644004</internalNodes>
          <leafValues>
            -5.2964913845062256e-001 6.5821391344070435e-001</leafValues></_>
        <_>
          <internalNodes>
            0 -1 84 -1150083176 1607504520 1029738904 2009434329
            -547640534 1451884712 285339728 293544242</internalNodes>
          <leafValues>
            -9.2402034997940063e-001 3.7686201930046082e-001</leafValues></_>
        <_>
          <internalNodes>
            0 -1 30 -423768405 1186938505 -361581338 1344469583
            -1252221440 -792371395 -1505057875 -815806698</internalNodes>
          <leafValues>
            -5.7011216878890991e-001 6.1107665300369263e-001</leafValues></_>
        <_>
          <internalNodes>
            0 -1 6 1900026502 -1261759872 1796243651 110302894
            -1375724836 -747593511 2127341663 118236138</internalNodes>
          <leafValues>
            -8.7445235252380371e-001 4.1792583465576172e-001</leafValues></_></weakClassifiers></_>
    <!-- stage 16 -->
    <_>
      <maxWeakCount>14</maxWeakCount>
      <stageThreshold>-1.8028355836868286e+000</stageThreshold>
      <weakClassifiers>
        <_>
          <internalNodes>
            0 -1 107 -595260204 -707197284 -287470095 2140229437
            -862835528 -1158045620 -161710370 -1409221105</internalNodes>
          <leafValues>
            -1.7017146944999695e-001 1.0588628053665161e+000</leafValues></_>
        <_>
          <internalNodes>
            0 -1 88 1670718737 -1942105059 -587179183 325057219
            -649336059 1479133453 -644220673 -666315955</internalNodes>
          <leafValues>
            -7.4718815088272095e-001 5.3236883878707886e-001</leafValues></_>
        <_>
          <internalNodes>
            0 -1 37 -791682822 -1864185396 -1870622462 1889752000
            -929428865 807667782 310653783 1883731701</internalNodes>
          <leafValues>
            -1.3211679458618164e+000 3.3362260460853577e-001</leafValues></_>
        <_>
          <internalNodes>
            0 -1 157 -552604894 -797201117 -2103010132 -419171830
            -782258000 1077968916 1480102048 -787484534</internalNodes>
          <leafValues>
            -6.2005817890167236e-001 6.1717480421066284e-001</leafValues></_>
        <_>
          <internalNodes>
            0 -1 94 -1328584190 -962825534 890485597 -1957604931
            999535024 756950967 557871568 22230153</internalNodes>
          <leafValues>
            -1.0877259969711304e+000 3.5975027084350586e-001</leafValues></_>
        <_>
          <internalNodes>
            0 -1 99 840629693 -1753034504 -553333607 -1385475848
            17493421 444793070 58837263 1562315080</internalNodes>
          <leafValues>
            -8.1548494100570679e-001 4.4850721955299377e-001</leafValues></_>
        <_>
          <internalNodes>
            0 -1 44 -31780581 -899717169 -266812348 850407762 -2487148
            842151951 -670367911 657650486</internalNodes>
          <leafValues>
            -8.0245965719223022e-001 4.4480851292610168e-001</leafValues></_>
        <_>
          <internalNodes>
            0 -1 52 -1386273 -76468377 -14259335 272522611 -293954342
            -545843204 -317010470 -820318273</internalNodes>
          <leafValues>
            -4.0715813636779785e-001 8.0994832515716553e-001</leafValues></_>
        <_>
          <internalNodes>
            0 -1 35 4500281 -1958679253 1620051971 -1951358848
            -666410936 169568951 -1559059829 1073720122</internalNodes>
          <leafValues>
            -1.2224037647247314e+000 2.9928752779960632e-001</leafValues></_>
        <_>
          <internalNodes>
            0 -1 155 1376312024 -1279769221 306248357 1641932290
            407412478 1099467420 2097919434 1997277538</internalNodes>
          <leafValues>
            -7.8861647844314575e-001 4.3418204784393311e-001</leafValues></_>
        <_>
          <internalNodes>
            0 -1 42 -564799252 -68205130 137523709 1383104100 -487665528
            -43356291 -613896481 -80479089</internalNodes>
          <leafValues>
            -4.6588051319122314e-001 7.5186413526535034e-001</leafValues></_>
        <_>
          <internalNodes>
            0 -1 147 1997077363 -404033848 561478901 1371077980
            -2142137360 -403766105 479514805 -574105348</internalNodes>
          <leafValues>
            -4.6440723538398743e-001 7.1557438373565674e-001</leafValues></_>
        <_>
          <internalNodes>
            0 -1 120 -1074267531 -573591577 2121554545 2120711805
            -478265722 -58728458 1008191100 -94378229</internalNodes>
          <leafValues>
            -4.8694518208503723e-001 7.3593372106552124e-001</leafValues></_>
        <_>
          <internalNodes>
            0 -1 73 -590653095 -934722710 -989797641 1086638528
            -892789164 -553458208 -1110548908 -933712236</internalNodes>
          <leafValues>
            -7.3666113615036011e-001 4.9177542328834534e-001</leafValues></_></weakClassifiers></_></stages>
  <features>
    <_>
      <rect>
        0 0 5 11</rect></_>
    <_>
      <rect>
        0 0 6 11</rect></_>
    <_>
      <rect>
        0 1 4 9</rect></_>
    <_>
      <rect>
        0 2 4 11</rect></_>
    <_>
      <rect>
        0 4 11 4</rect></_>
    <_>
      <rect>
        0 5 3 8</rect></_>
    <_>
      <rect>
        0 6 1 1</rect></_>
    <_>
      <rect>
        0 6 3 6</rect></_>
    <_>
      <rect>
        0 7 10 3</rect></_>
    <_>
      <rect>
        0 8 5 9</rect></_>
    <_>
      <rect>
        0 10 3 3</rect></_>
    <_>
      <rect>
        0 10 5 6</rect></_>
    <_>
      <rect>
        0 11 4 5</rect></_>
    <_>
      <rect>
        0 13 2 3</rect></_>
    <_>
      <rect>
        0 15 1 4</rect></_>
    <_>
      <rect>
        0 15 3 3</rect></_>
    <_>
      <rect>
        0 19 3 3</rect></_>
    <_>
      <rect>
        1 1 1 1</rect></_>
    <_>
      <rect>
        1 5 11 6</rect></_>
    <_>
      <rect>
        1 7 3 3</rect></_>
    <_>
      <rect>
        1 9 11 5</rect></_>
    <_>
      <rect>
        1 11 1 2</rect></_>
    <_>
      <rect>
        1 13 1 3</rect></_>
    <_>
      <rect>
        2 0 8 11</rect></_>
    <_>
      <rect>
        2 1 9 11</rect></_>
    <_>
      <rect>
        2 6 11 7</rect></_>
    <_>
      <rect>
        2 14 8 2</rect></_>
    <_>
      <rect>
        2 17 4 2</rect></_>
    <_>
      <rect>
        2 17 11 6</rect></_>
    <_>
      <rect>
        2 18 3 4</rect></_>
    <_>
      <rect>
        2 19 1 1</rect></_>
    <_>
      <rect>
        2 20 1 1</rect></_>
    <_>
      <rect>
        2 21 1 1</rect></_>
    <_>
      <rect>
        2 29 1 1</rect></_>
    <_>
      <rect>
        3 0 2 1</rect></_>
    <_>
      <rect>
        3 5 10 10</rect></_>
    <_>
      <rect>
        3 9 6 5</rect></_>
    <_>
      <rect>
        3 10 5 3</rect></_>
    <_>
      <rect>
        3 10 5 4</rect></_>
    <_>
      <rect>
        3 18 4 3</rect></_>
    <_>
      <rect>
        3 22 1 1</rect></_>
    <_>
      <rect>
        3 23 1 1</rect></_>
    <_>
      <rect>
        3 24 1 1</rect></_>
    <_>
      <rect>
        3 26 10 3</rect></_>
    <_>
      <rect>
        4 16 3 3</rect></_>
    <_>
      <rect>
        4 17 8 6</rect></_>
    <_>
      <rect>
        5 0 9 3</rect></_>
    <_>
      <rect>
        5 0 10 1</rect></_>
    <_>
      <rect>
        5 13 8 7</rect></_>
    <_>
      <rect>
        5 15 7 6</rect></_>
    <_>
      <rect>
        5 16 10 4</rect></_>
    <_>
      <rect>
        5 18 2 2</rect></_>
    <_>
      <rect>
        5 22 2 2</rect></_>
    <_>
      <rect>
        5 24 1 1</rect></_>
    <_>
      <rect>
        6 3 9 8</rect></_>
    <_>
      <rect>
        6 5 8 8</rect></_>
    <_>
      <rect>
        6 12 3 4</rect></_>
    <_>
      <rect>
        6 13 7 4</rect></_>
    <_>
      <rect>
        6 16 2 2</rect></_>
    <_>
      <rect>
        6 20 1 1</rect></_>
    <_>
      <rect>
        6 23 2 2</rect></_>
    <_>
      <rect>
        6 24 2 2</rect></_>
    <_>
      <rect>
        7 0 5 3</rect></_>
    <_>
      <rect>
        7 5 7 5</rect></_>
    <_>
      <rect>
        7 11 6 5</rect></_>
    <_>
      <rect>
        7 12 2 2</rect></_>
    <_>
      <rect>
        7 12 7 4</rect></_>
    <_>
      <rect>
        7 15 3 4</rect></_>
    <_>
      <rect>
        7 17 8 5</rect></_>
    <_>
      <rect>
        7 21 2 2</rect></_>
    <_>
      <rect>
        7 25 2 1</rect></_>
    <_>
      <rect>
        8 7 6 9</rect></_>
    <_>
      <rect>
        8 9 6 5</rect></_>
    <_>
      <rect>
        8 15 2 2</rect></_>
    <_>
      <rect>
        8 15 6 2</rect></_>
    <_>
      <rect>
        9 27 2 2</rect></_>
    <_>
      <rect>
        10 5 8 7</rect></_>
    <_>
      <rect>
        10 13 5 4</rect></_>
    <_>
      <rect>
        10 15 3 2</rect></_>
    <_>
      <rect>
        11 13 5 3</rect></_>
    <_>
      <rect>
        11 15 5 2</rect></_>
    <_>
      <rect>
        12 11 3 5</rect></_>
    <_>
      <rect>
        12 17 1 1</rect></_>
    <_>
      <rect>
        13 16 1 1</rect></_>
    <_>
      <rect>
        13 17 1 1</rect></_>
    <_>
      <rect>
        13 17 5 3</rect></_>
    <_>
      <rect>
        13 20 6 4</rect></_>
    <_>
      <rect>
        14 9 4 4</rect></_>
    <_>
      <rect>
        14 15 4 2</rect></_>
    <_>
      <rect>
        14 16 4 2</rect></_>
    <_>
      <rect>
        14 19 4 3</rect></_>
    <_>
      <rect>
        15 11 4 4</rect></_>
    <_>
      <rect>
        15 12 3 4</rect></_>
    <_>
      <rect>
        15 15 3 2</rect></_>
    <_>
      <rect>
        15 16 2 1</rect></_>
    <_>
      <rect>
        15 17 1 1</rect></_>
    <_>
      <rect>
        16 0 5 9</rect></_>
    <_>
      <rect>
        16 16 1 1</rect></_>
    <_>
      <rect>
        16 17 1 1</rect></_>
    <_>
      <rect>
        16 20 5 4</rect></_>
    <_>
      <rect>
        17 8 6 9</rect></_>
    <_>
      <rect>
        17 12 3 2</rect></_>
    <_>
      <rect>
        17 14 2 1</rect></_>
    <_>
      <rect>
        17 15 1 1</rect></_>
    <_>
      <rect>
        17 16 1 1</rect></_>
    <_>
      <rect>
        17 17 1 1</rect></_>
    <_>
      <rect>
        18 16 1 1</rect></_>
    <_>
      <rect>
        19 3 4 3</rect></_>
    <_>
      <rect>
        19 3 5 4</rect></_>
    <_>
      <rect>
        19 6 2 9</rect></_>
    <_>
      <rect>
        20 0 3 1</rect></_>
    <_>
      <rect>
        20 1 5 10</rect></_>
    <_>
      <rect>
        20 5 5 10</rect></_>
    <_>
      <rect>
        20 8 5 9</rect></_>
    <_>
      <rect>
        20 16 5 1</rect></_>
    <_>
      <rect>
        21 11 2 2</rect></_>
    <_>
      <rect>
        21 12 1 1</rect></_>
    <_>
      <rect>
        21 13 4 3</rect></_>
    <_>
      <rect>
        21 18 3 5</rect></_>
    <_>
      <rect>
        22 8 1 2</rect></_>
    <_>
      <rect>
        22 12 2 1</rect></_>
    <_>
      <rect>
        22 16 3 4</rect></_>
    <_>
      <rect>
        23 0 3 1</rect></_>
    <_>
      <rect>
        23 0 4 10</rect></_>
    <_>
      <rect>
        23 1 3 11</rect></_>
    <_>
      <rect>
        23 1 4 9</rect></_>
    <_>
      <rect>
        23 7 4 4</rect></_>
    <_>
      <rect>
        23 10 2 2</rect></_>
    <_>
      <rect>
        23 17 2 2</rect></_>
    <_>
      <rect>
        23 19 2 1</rect></_>
    <_>
      <rect>
        24 7 3 3</rect></_>
    <_>
      <rect>
        24 20 3 2</rect></_>
    <_>
      <rect>
        25 10 3 4</rect></_>
    <_>
      <rect>
        25 18 3 2</rect></_>
    <_>
      <rect>
        25 21 1 1</rect></_>
    <_>
      <rect>
        25 21 3 2</rect></_>
    <_>
      <rect>
        25 22 1 1</rect></_>
    <_>
      <rect>
        26 0 3 1</rect></_>
    <_>
      <rect>
        26 1 3 1</rect></_>
    <_>
      <rect>
        26 2 1 1</rect></_>
    <_>
      <rect>
        26 7 3 5</rect></_>
    <_>
      <rect>
        26 13 3 5</rect></_>
    <_>
      <rect>
        26 15 3 2</rect></_>
    <_>
      <rect>
        26 20 3 2</rect></_>
    <_>
      <rect>
        27 25 1 1</rect></_>
    <_>
      <rect>
        28 0 2 1</rect></_>
    <_>
      <rect>
        28 12 2 4</rect></_>
    <_>
      <rect>
        28 23 1 1</rect></_>
    <_>
      <rect>
        28 24 1 1</rect></_>
    <_>
      <rect>
        29 11 2 5</rect></_>
    <_>
      <rect>
        29 15 2 2</rect></_>
    <_>
      <rect>
        30 9 1 1</rect></_>
    <_>
      <rect>
        30 11 1 1</rect></_>
    <_>
      <rect>
        30 20 1 1</rect></_>
    <_>
      <rect>
        30 21 1 1</rect></_>
    <_>
      <rect>
        31 0 1 1</rect></_>
    <_>
      <rect>
        31 10 1 3</rect></_>
    <_>
      <rect>
        31 13 1 3</rect></_>
    <_>
      <rect>
        31 15 1 2</rect></_>
    <_>
      <rect>
        31 18 1 1</rect></_>
    <_>
      <rect>
        31 19 1 1</rect></_></features></cascade>
</opencv_storage>
